|--- #Selezionare tutti gli studenti nati nel 1990 (160) 

SELECT * 
FROM `students`
WHERE YEAR(date_of_birth) = '1990'

|--- #Selezionare tutti i corsi che valgono piu di 10 crediti (479) 

SELECT *
FROM `courses`
WHERE `cfu` > '10'

|--- #Selezionare tutti gli studenti che hanno più di 30 anni 

SELECT * 
FROM `students` 
WHERE YEAR(date_of_birth) < '1991'

|--- #Selezionare tutti i corsi del primo anno di un qualsiasi corso di laurea 

SELECT * 
FROM `courses` 
WHERE `year` = 1
AND `period` = 'I semestre'

|--- #Selezionare tutti gli appelli d'esame che avvengono nel pomeriggio (dopo le 14) del 20/06/2020 (21) 

SELECT * 
FROM `exams`
WHERE `date` = '2020-06-20'
AND HOUR(`hour`) >= 14

|--- #Selezionare tutti i corsi di laurea magistrale (38)

SELECT *
FROM `degrees`
WHERE `level` = 'magistrale'

|--- #Da quanti dipartimenti è composta l'università? (12)

SELECT *
FROM `departments`

SELECT COUNT(id)
FROM `departments`

|--- #Quanti sono gli insegnanti che non hanno un numero di telefono? (50)

SELECT *
FROM `teachers`
WHERE `phone` IS NULL

|--- #Contare quanti iscritti ci sono stati ogni anno

SELECT COUNT(enrolment_date) , YEAR(enrolment_date)
FROM `students`
GROUP BY YEAR(enrolment_date)

|--- #Contare gli insegnanti che hanno l'ufficio nello stesso edificio

SELECT teachers.office_address, COUNT(teachers.office_address)
FROM `teachers`
GROUP BY office_address

|--- #Calcolare la media dei voti di ogni esame 

SELECT AVG(vote) AS 'media_voti' , exam_id
FROM `exam_student`
GROUP BY exam_id

|--- #Contare quanti corsi di laurea ci sono per ogni dipartimento

SELECT COUNT(*), degrees.department_id
FROM degrees
GROUP BY degrees.department_id

1 |--- #Selezionare tutti gli studenti iscritti al Corso di Laurea in Economia

SELECT students.*, degrees.name
FROM students
INNER JOIN degrees
ON students.degree_id = degrees.id
WHERE degrees.name = 'Corso di Laurea in Economia'

2 |--- #Selezionare tutti i Corsi di Laurea Magistrale del Dipartimento di Neuroscienze

SELECT degrees.*, departments.id
FROM degrees
INNER JOIN departments
ON degrees.department_id = departments.id
WHERE degrees.level = 'magistrale' AND departments.name = 'Dipartimento di Neuroscienze'

3 |--- #Selezionare tutti i corsi in cui insegna Fulvio Amato (id=44)

SELECT courses.*, course_teacher.teacher_id
FROM courses
INNER JOIN course_teacher
ON courses.id = course_teacher.course_id
WHERE course_teacher.teacher_id = 44

4 |--- #Selezionare tutti gli studenti con i dati relativi al corso di laurea a cui sono iscritti e il
relativo dipartimento, in ordine alfabetico per cognome e nome

SELECT students.*, departments.name AS 'dipartimento'
FROM students
INNER JOIN degrees
ON students.degree_id = degrees.id
INNER JOIN departments
ON degrees.department_id = departments.id

5 |--- #Selezionare tutti i corsi di laurea con i relativi corsi e insegnanti

SELECT degrees.name , courses.name , teachers.name, teachers.surname
FROM degrees
INNER JOIN courses
ON degrees.id = courses.degree_id
INNER JOIN course_teacher
ON courses.id = course_teacher.course_id
INNER JOIN teachers
ON course_teacher.teacher_id = teachers.id

6 |--- #Selezionare tutti i docenti che insegnano nel Dipartimento di Matematica (54)

SELECT teachers.*, departments.name
FROM teachers
INNER JOIN course_teacher
ON course_teacher.teacher_id = teachers.id
INNER JOIN courses
ON courses.id = course_teacher.course_id
INNER JOIN degrees
ON degrees.id = courses.degree_id
INNER JOIN departments
ON departments.id = degrees.department_id
WHERE departments.name = 'Dipartimento di Matematica'  
GROUP BY id

#2 DISTINCT

SELECT DISTINCT teachers.name, teachers.surname, departments.name
FROM teachers 
INNER JOIN course_teacher 
ON course_teacher.teacher_id = teachers.id 
INNER JOIN courses 
ON course_teacher.course_id = courses.id 
INNER JOIN degrees 
ON courses.degree_id = degrees.id 
INNER JOIN departments 
ON degrees.department_id = departments.id 
WHERE departments.name = 'Dipartimento di Matematica';